{
 "cells": [
  {
   "cell_type": "code",
   "execution_count": 1,
   "metadata": {},
   "outputs": [],
   "source": [
    "import numpy as np"
   ]
  },
  {
   "cell_type": "code",
   "execution_count": 2,
   "metadata": {},
   "outputs": [],
   "source": [
    "data = np.load('BLmouse_model.npz')"
   ]
  },
  {
   "cell_type": "code",
   "execution_count": 4,
   "metadata": {},
   "outputs": [
    {
     "name": "stdout",
     "output_type": "stream",
     "text": [
      "<numpy.lib.npyio.NpzFile object at 0x7f06ebb60f28>\n"
     ]
    }
   ],
   "source": [
    "print(data)"
   ]
  },
  {
   "cell_type": "code",
   "execution_count": 9,
   "metadata": {
    "scrolled": true
   },
   "outputs": [
    {
     "name": "stdout",
     "output_type": "stream",
     "text": [
      "conv_weights [[[[-7.63209879e-01  3.40528995e-01 -2.90595740e-01  5.47925949e-01\n",
      "     6.00989163e-01  8.49460185e-01 -4.77550745e-01 -4.26644892e-01\n",
      "     1.76587448e-01  1.07287310e-01 -4.85409051e-02  2.70871371e-01\n",
      "     5.67865849e-01  5.09953871e-02  3.81035924e-01 -2.70032942e-01]\n",
      "   [ 6.65415525e-01 -5.50343506e-02  5.48582137e-01 -3.58536661e-01\n",
      "     2.71149665e-01 -2.45451584e-01  4.14769769e-01  2.13115647e-01\n",
      "     3.97753268e-02  2.42757127e-01  7.36189604e-01  3.03262562e-01\n",
      "     2.98906684e-01 -5.00195682e-01 -2.45761499e-01  2.50065356e-01]\n",
      "   [-4.66215909e-01 -1.36893064e-01 -1.38209179e-01 -1.29070044e-01\n",
      "     1.76254530e-02 -7.04427361e-01 -2.19999209e-01 -5.96868359e-02\n",
      "    -5.45368791e-01  1.71810463e-01 -9.01151538e-01 -2.29998335e-01\n",
      "    -9.71400797e-01  2.28108808e-01  1.81655049e-01 -4.09891941e-02]\n",
      "   [ 4.74506050e-01 -5.84746599e-01 -1.95469499e-01  8.64961505e-01\n",
      "     6.34956539e-01 -7.80519009e-01 -8.94712459e-04 -1.08826697e-01\n",
      "    -1.15892246e-01 -4.88163769e-01  9.21425149e-02  3.24973464e-01\n",
      "    -5.31317592e-01 -2.02624932e-01  5.63163012e-02  1.61923677e-01]]]\n",
      "\n",
      "\n",
      " [[[ 1.11772552e-01  3.24224949e-01 -1.37897491e-01  7.81788588e-01\n",
      "     1.91474512e-01  5.10285437e-01  2.39637986e-01 -1.27171844e-01\n",
      "    -2.53403991e-01  1.13664567e-01 -1.73277825e-01 -5.12173176e-01\n",
      "    -2.38969222e-01  8.64319682e-01 -5.12081325e-01 -1.00620234e+00]\n",
      "   [ 4.19439226e-01 -1.30319047e+00  8.24975431e-01  4.28392053e-01\n",
      "    -7.50711918e-01 -2.27701619e-01  1.05347328e-01  5.31992828e-03\n",
      "     4.19365078e-01 -7.44060427e-02 -8.07064056e-01 -4.82325815e-02\n",
      "     6.45423651e-01 -5.14565945e-01  3.78901921e-02  1.15373895e-01]\n",
      "   [-3.86099845e-01  4.31541391e-02 -6.56020343e-01 -4.35775459e-01\n",
      "     6.26410782e-01  1.24700241e-01 -1.17449500e-01  2.08042651e-01\n",
      "     5.85674122e-02 -4.36646938e-02  2.03512788e-01  1.20216765e-01\n",
      "     3.65757376e-01 -4.09680575e-01  3.14266123e-02  6.43869996e-01]\n",
      "   [ 1.94112659e-01  2.79014409e-01 -6.39596045e-01 -2.81750292e-01\n",
      "     8.49368632e-01 -7.77232647e-01 -8.16913620e-02  9.29645300e-02\n",
      "    -3.84632200e-01  1.51025787e-01  1.22726426e-01 -2.55184509e-02\n",
      "    -4.97214235e-02  1.63202956e-02  1.54007405e-01 -1.40426561e-01]]]\n",
      "\n",
      "\n",
      " [[[ 1.38078079e-01 -2.53161609e-01 -3.23268950e-01 -1.53156579e-01\n",
      "     2.39298031e-01 -3.39169919e-01  1.16034612e-01 -2.09150925e-01\n",
      "     4.66939747e-01 -8.95003602e-02 -9.49250460e-01  2.25722805e-01\n",
      "     8.10923874e-01  5.54426670e-01  5.20462036e-01 -8.22558284e-01]\n",
      "   [-7.62560427e-01  5.65723330e-02  4.41223264e-01  8.36445212e-01\n",
      "     8.97800252e-02 -5.95569849e-01 -1.23763330e-01 -2.40122333e-01\n",
      "    -1.35855317e-01 -3.92671138e-01 -1.89180434e-01 -2.27265492e-01\n",
      "    -3.10671180e-01 -5.25004327e-01  4.42259640e-01 -2.56664693e-01]\n",
      "   [ 6.34888232e-01 -4.24206734e-01 -1.05698586e-01 -1.06891114e-02\n",
      "     1.92960650e-01  9.37178075e-01  6.66625440e-01  8.24307427e-02\n",
      "     3.88950348e-01  2.64238697e-02  4.78861555e-02 -2.45387852e-01\n",
      "    -2.92788241e-02 -2.80982107e-01  3.17950621e-02  1.35559201e+00]\n",
      "   [ 1.99197363e-02  5.85975587e-01 -2.67745644e-01 -4.66722190e-01\n",
      "     1.60622969e-01 -3.83738339e-01  3.41448575e-01  2.65626699e-01\n",
      "     7.07634389e-01  2.04595655e-01  5.12119770e-01 -1.62957683e-01\n",
      "    -2.63438433e-01  3.81797165e-01 -5.09994149e-01  7.09583908e-02]]]\n",
      "\n",
      "\n",
      " [[[-3.91706675e-01  1.75041780e-01 -8.54932427e-01 -8.62431675e-02\n",
      "    -1.63371265e-01  9.15463626e-01  5.81515551e-01 -6.67559206e-01\n",
      "     3.72663230e-01 -9.09618258e-01 -9.58000273e-02 -3.94820035e-01\n",
      "    -2.08884954e-01  7.99819231e-02  3.47678691e-01 -2.04569370e-01]\n",
      "   [ 9.57550049e-01 -1.99138388e-01  1.21750605e+00 -1.36752784e-01\n",
      "    -2.40619760e-03 -6.33404493e-01  6.37963951e-01 -5.40685475e-01\n",
      "     6.91712737e-01 -5.26126437e-02  3.45042109e-01  5.38879573e-01\n",
      "     3.70744348e-01  1.07233496e-02 -4.38052267e-01 -4.70628142e-01]\n",
      "   [-6.85980678e-01 -2.37027064e-01 -6.46813095e-01 -1.06698275e+00\n",
      "    -2.04709172e-02 -6.05982125e-01  1.80216849e-01  1.84391245e-01\n",
      "     4.82434124e-01  1.25562859e+00  1.18868542e+00 -1.72706023e-01\n",
      "     1.07571971e+00 -6.57991350e-01  3.13145816e-01  2.59588622e-02]\n",
      "   [ 3.52325737e-01 -2.58392185e-01  9.59760696e-02  6.47742808e-01\n",
      "     3.41921323e-03 -5.00871837e-01 -5.04536092e-01  2.29141876e-01\n",
      "    -6.08637452e-01  7.48813571e-03 -1.59059972e-01  3.41399282e-01\n",
      "    -6.90436006e-01  3.15242648e-01  2.92938948e-01  2.75957704e-01]]]\n",
      "\n",
      "\n",
      " [[[-1.36687726e-01  7.86888778e-01 -6.59441292e-01  1.49886250e-01\n",
      "    -6.43023729e-01  9.62054968e-01  7.18110561e-01 -1.93529472e-01\n",
      "     4.26170714e-02 -7.92937100e-01 -2.65263259e-01  4.07376170e-01\n",
      "     7.79352665e-01  1.15639284e-01 -6.82175979e-02  2.36111939e-01]\n",
      "   [ 4.36070859e-01 -1.16903710e+00 -1.17777586e-02  3.35621759e-02\n",
      "    -2.75172234e-01 -3.05759788e-01 -5.07679105e-01 -3.42883199e-01\n",
      "    -7.67523170e-01  1.52652156e+00  4.28008080e-01  9.15556073e-01\n",
      "    -5.96170425e-01 -4.81141537e-01 -1.61054641e-01 -3.37703943e-01]\n",
      "   [-8.25817108e-01  6.58847451e-01  1.05948615e+00 -7.19176710e-01\n",
      "     1.12144947e+00 -4.37238574e-01 -6.40356362e-01 -6.21773563e-02\n",
      "    -5.21077931e-01 -8.47523987e-01  3.02719548e-02 -3.63241434e-01\n",
      "    -1.86534952e-02  1.54781163e-01 -5.16265094e-01  6.55666471e-01]\n",
      "   [-3.03509593e-01 -1.05226505e+00 -7.45168924e-01  2.29471065e-02\n",
      "     1.55871078e-01  3.62079978e-01 -2.41534963e-01  6.63497448e-02\n",
      "     9.55667198e-01 -4.12671506e-01  2.26364300e-01 -8.61987919e-02\n",
      "    -3.42341185e-01 -2.13938326e-01  1.32299924e+00 -4.05546129e-01]]]\n",
      "\n",
      "\n",
      " [[[ 9.58841801e-01 -1.17954445e+00 -7.31368542e-01  6.90191209e-01\n",
      "    -8.65770876e-01  1.00815177e+00 -6.87865674e-01  3.94143939e-01\n",
      "    -3.79011631e-01  3.77228335e-02  1.76253051e-01 -4.74340171e-01\n",
      "     5.56622028e-01 -3.93614411e-01 -4.51486975e-01 -3.16455334e-01]\n",
      "   [-9.67409313e-01  3.79751235e-01  8.31350446e-01  1.03205156e+00\n",
      "     1.72096908e+00 -2.38226610e-03 -7.57353723e-01 -3.71734738e-01\n",
      "    -4.34082299e-01 -6.84143007e-01  5.25701791e-03  6.02035895e-02\n",
      "     8.86232436e-01  8.93952176e-02  1.71591687e+00  3.36649939e-02]\n",
      "   [-4.56776172e-02  9.65288430e-02 -3.21324408e-01 -3.37555259e-01\n",
      "     1.58387180e-02 -8.98257673e-01  5.05386174e-01 -5.98924994e-01\n",
      "    -2.29507938e-01  1.32830679e+00 -4.75796521e-01  2.51582950e-01\n",
      "    -1.10875770e-01 -1.04604281e-01 -6.42898679e-01  1.64440882e+00]\n",
      "   [ 2.77102023e-01  7.31697679e-01  4.72352058e-01 -6.15442216e-01\n",
      "    -2.58574754e-01 -6.00728929e-01  7.13370562e-01 -3.26338746e-02\n",
      "     4.00748819e-01 -1.94850072e-01  2.96241343e-01 -3.29608172e-01\n",
      "    -9.04029384e-02  6.61358356e-01 -5.51482320e-01 -2.47990200e-03]]]\n",
      "\n",
      "\n",
      " [[[-1.45191938e-01  3.23089212e-01 -6.90674901e-01  1.16296999e-01\n",
      "    -2.03353569e-01  4.09252085e-02 -3.04413795e-01  4.68398899e-01\n",
      "     6.07501864e-01  4.58486766e-01 -1.32502809e-01  1.78139970e-01\n",
      "     7.44128227e-01 -7.36860335e-01  9.52258527e-01 -8.41824234e-01]\n",
      "   [ 8.00766289e-01 -5.21452390e-02  1.59294993e-01 -3.13995481e-01\n",
      "    -4.79772747e-01  1.20835967e-01  8.57163191e-01 -2.11464971e-01\n",
      "    -1.60964042e-01 -8.79792646e-02  4.10040934e-03 -2.43510306e-01\n",
      "    -6.22674286e-01 -5.46892464e-01 -2.27999344e-01 -2.70951509e-01]\n",
      "   [-3.47875386e-01 -1.70109406e-01 -1.19213521e-01 -5.07039189e-01\n",
      "     7.69794285e-01  1.82527341e-02 -4.53458309e-01 -3.43799256e-02\n",
      "    -8.43764782e-01 -1.41376138e-01 -2.01412201e-01 -6.44492567e-01\n",
      "     9.07137152e-03  8.76856074e-02 -6.21037185e-01  1.11865032e+00]\n",
      "   [-8.88532937e-01 -1.27630159e-01 -3.32748413e-01  2.79247224e-01\n",
      "     1.45196736e-01  2.35327452e-01  1.92236200e-01 -7.49661326e-01\n",
      "     4.11649406e-01 -1.52742788e-01  3.43893096e-02 -3.84052217e-01\n",
      "    -4.53123748e-01 -1.41050562e-01 -1.75347477e-01 -1.87927246e-01]]]\n",
      "\n",
      "\n",
      " [[[ 3.45226258e-01  3.79253834e-01 -6.74657166e-01  4.04200792e-01\n",
      "    -3.13857049e-01 -4.85883243e-02 -3.60361010e-01 -7.35352814e-01\n",
      "    -6.06897414e-01  2.93725163e-01 -7.35106528e-01  4.39932048e-01\n",
      "     2.00958014e-01  4.87136692e-01  1.12468906e-01  3.19960177e-01]\n",
      "   [ 1.01785183e-01  5.64595796e-02  6.98289812e-01  3.12089443e-01\n",
      "     7.13349462e-01  8.97543356e-02 -2.71052241e-01 -4.54057366e-01\n",
      "     4.45944726e-01 -5.62277198e-01  5.05376697e-01  1.29108739e+00\n",
      "     1.54464111e-01  5.28517008e-01 -4.71708149e-01 -4.55520779e-01]\n",
      "   [ 2.16370225e-01 -5.72765708e-01  2.82851070e-01 -2.62855083e-01\n",
      "    -2.83160836e-01  1.19284391e-01  6.69704676e-02  1.32122755e+00\n",
      "    -6.25482380e-01 -6.90308511e-02  4.40634668e-01 -1.16437960e+00\n",
      "     5.82326293e-01  1.79383144e-01 -7.88657963e-02  4.01806444e-01]\n",
      "   [-1.22513823e-01 -5.18526971e-01 -1.72215104e-01 -1.86358035e-01\n",
      "     3.45301852e-02  6.17207587e-02  2.29067683e-01 -2.68226832e-01\n",
      "     4.45864975e-01  4.33747739e-01 -8.38283077e-02 -1.04213089e-01\n",
      "     3.75035733e-01 -1.54119879e-01 -2.22357363e-01  9.77471694e-02]]]\n",
      "\n",
      "\n",
      " [[[ 5.18951975e-02 -1.19384909e+00 -7.11496115e-01  9.71900895e-02\n",
      "    -5.22719204e-01 -1.24297164e-01  3.40132058e-01  6.06859565e-01\n",
      "    -4.75446284e-01 -1.54078593e-02 -1.52531182e-02 -6.82539046e-01\n",
      "    -4.47736308e-02  2.93090999e-01  3.81882042e-01 -1.26412421e-01]\n",
      "   [-8.86121690e-01  7.63557851e-01  6.33572638e-02  5.94765544e-01\n",
      "    -1.81308940e-01 -1.97067708e-01 -1.20402955e-01 -1.87284485e-01\n",
      "     4.02837723e-01 -1.98843405e-01  1.50497541e-01  1.63360941e+00\n",
      "    -2.51475424e-02 -2.60163635e-01  6.06962323e-01 -8.25544894e-01]\n",
      "   [ 4.29655731e-01 -5.40334046e-01  6.83338046e-02 -3.27961177e-01\n",
      "     1.44140255e+00  3.89561728e-02 -2.52099425e-01 -6.14296198e-01\n",
      "     1.34060740e-01 -2.86690257e-02  2.00648516e-01 -1.26524067e+00\n",
      "    -5.01492918e-01 -2.85796940e-01 -2.27556482e-01  4.78002489e-01]\n",
      "   [-1.15374036e-01  4.38484579e-01 -5.51893711e-01  4.07421350e-01\n",
      "    -4.58501577e-01 -1.78989559e-01  1.66382998e-01 -5.26454031e-01\n",
      "     8.84550869e-01 -1.04346713e-02  4.20539945e-01  1.72643051e-01\n",
      "    -4.42607492e-01 -1.29342422e-01  6.66377991e-02 -3.17630589e-01]]]\n",
      "\n",
      "\n",
      " [[[-6.35588706e-01  5.63698590e-01 -7.38819122e-01  7.28332818e-01\n",
      "     7.91578665e-02  1.36590898e-01  3.40707541e-01  6.76703036e-01\n",
      "     4.36725318e-01 -1.79108277e-01 -9.46849346e-01 -3.15195024e-01\n",
      "    -1.00968271e-01  2.83443958e-01  6.20367169e-01 -4.04075652e-01]\n",
      "   [ 2.02711612e-01  1.33471340e-01  4.60324079e-01 -4.29083072e-02\n",
      "    -2.86255300e-01  1.70749411e-01 -1.13611609e-01 -4.10026520e-01\n",
      "    -4.21652704e-01 -3.77745897e-01  9.18179378e-02  9.40301001e-01\n",
      "    -7.38614500e-02 -1.72897354e-01 -2.64152855e-01 -4.45831448e-01]\n",
      "   [-2.94133335e-01 -4.81280386e-01  5.53263910e-02 -9.16953012e-03\n",
      "     6.82689399e-02  4.19365644e-01  2.23910823e-01 -8.96568358e-01\n",
      "    -5.00031233e-01 -1.50687918e-01 -4.83180694e-02 -9.77973521e-01\n",
      "     2.07544193e-01 -2.57712692e-01  5.96775174e-01  6.30132258e-01]\n",
      "   [ 2.67646700e-01  3.69629294e-01 -1.00671375e+00 -1.60368860e-01\n",
      "     1.33476302e-01  3.38821560e-01  3.71781528e-01  1.53395534e-01\n",
      "     3.16451311e-01  2.73966193e-01 -2.43668079e-01 -2.18907192e-01\n",
      "    -1.54629936e-02  4.84308340e-02 -1.29283100e-01 -2.10820772e-02]]]]\n",
      "conv_biases [-1.0902483 -1.4663991 -1.1407102 -1.5808297 -2.452566  -2.5204647\n",
      " -1.22089   -1.0215771 -1.281251  -2.0897372 -1.173207  -1.3073567\n",
      " -1.4333124 -1.2115203 -1.9918778 -1.8614107]\n",
      "layer1_weights [[-0.02746686 -0.00576475 -0.03028072 ...  0.02200034 -0.08815353\n",
      "  -0.01273487]\n",
      " [ 0.00403355 -0.02480515  0.0103123  ... -0.05817804 -0.00312768\n",
      "  -0.05268018]\n",
      " [ 0.00553322 -0.03195306  0.00222831 ... -0.11170282 -0.03801531\n",
      "   0.00546246]\n",
      " ...\n",
      " [-0.0099535   0.0053679   0.01591529 ...  0.04154048  0.00028223\n",
      "   0.02470107]\n",
      " [-0.03097786 -0.06317262 -0.03875083 ... -0.00777888  0.07153843\n",
      "  -0.15043418]\n",
      " [-0.02070945 -0.04700227  0.00698011 ...  0.04065077 -0.0202905\n",
      "  -0.05736503]]\n",
      "layer1_biases [0.6716177  0.80184174 0.666635   0.75402504 0.4726688  0.25655827\n",
      " 0.80476177 0.83897865 0.72773165 0.5433568  0.7848734  0.5528931\n",
      " 0.41823936 0.38957384 0.07751678 0.84935194 0.48975417 0.80386406\n",
      " 0.7955212  0.89666927 0.42151305 0.5361298  0.3288653  0.7214424\n",
      " 0.7372359  0.7348694  0.6699009  0.36116347 0.22124185 0.4718402\n",
      " 0.7825312  0.426393   0.69489884 0.64521486 0.6878518  0.56377393\n",
      " 0.76818967 0.8250853  0.7382937  0.7886812  0.72654194 0.4510707\n",
      " 0.8032839  0.59766036 0.70251215 0.41409788 0.87173855 0.19167145\n",
      " 0.7198486  0.36187047 0.6762759  0.45912126 0.4892341  0.6808487\n",
      " 0.7616967  0.60940266 0.8205436  0.60912246 0.6412049  0.50611377\n",
      " 0.8327564  0.6626947  0.66795284 0.42814744]\n",
      "layer2_weights [[-0.10157265  0.10223304]\n",
      " [-0.25449806  0.2547192 ]\n",
      " [ 0.08472305 -0.08442338]\n",
      " [-0.05495027  0.0524743 ]\n",
      " [ 0.20103161 -0.20134798]\n",
      " [ 0.40263218 -0.40279022]\n",
      " [-0.22551559  0.2262834 ]\n",
      " [-0.16042031  0.15927151]\n",
      " [ 0.07616472 -0.07744784]\n",
      " [-0.275631    0.27509904]\n",
      " [ 0.07608445 -0.07732461]\n",
      " [-0.18985628  0.18996336]\n",
      " [ 0.13033369 -0.13115112]\n",
      " [-0.32356477  0.32366955]\n",
      " [ 0.21951742 -0.22070132]\n",
      " [-0.21238175  0.21336134]\n",
      " [-0.21611698  0.21842392]\n",
      " [-0.3641982   0.3650807 ]\n",
      " [ 0.2977518  -0.2978232 ]\n",
      " [-0.19053553  0.19144958]\n",
      " [ 0.23505905 -0.23472436]\n",
      " [-0.27310237  0.27236167]\n",
      " [ 0.22309157 -0.22268973]\n",
      " [-0.12467904  0.1245812 ]\n",
      " [-0.19443534  0.194088  ]\n",
      " [ 0.15992211 -0.16011658]\n",
      " [-0.02715199  0.0278652 ]\n",
      " [ 0.14634837 -0.14597155]\n",
      " [ 0.16388233 -0.16401622]\n",
      " [-0.2624783   0.26217026]\n",
      " [-0.08258364  0.08438383]\n",
      " [ 0.19770004 -0.19802032]\n",
      " [ 0.15556654 -0.15667194]\n",
      " [-0.06303381  0.0640396 ]\n",
      " [-0.00356656  0.00554541]\n",
      " [ 0.02276909 -0.02183578]\n",
      " [-0.21751052  0.21749558]\n",
      " [ 0.08268272 -0.08381373]\n",
      " [-0.19715598  0.19714627]\n",
      " [-0.0864174   0.08664587]\n",
      " [ 0.06494293 -0.06617223]\n",
      " [-0.34286076  0.3416336 ]\n",
      " [ 0.02744918 -0.02571529]\n",
      " [ 0.01454285 -0.01444072]\n",
      " [ 0.06944959 -0.0696697 ]\n",
      " [ 0.17289622 -0.17202893]\n",
      " [-0.2671071   0.26567683]\n",
      " [-0.11300205  0.11244489]\n",
      " [ 0.17700501 -0.17497309]\n",
      " [ 0.21511544 -0.2155853 ]\n",
      " [-0.01701256  0.01876168]\n",
      " [-0.02547781  0.02600032]\n",
      " [ 0.03365972 -0.03620846]\n",
      " [-0.29799455  0.29821855]\n",
      " [-0.1841169   0.1852674 ]\n",
      " [ 0.01118394 -0.00896239]\n",
      " [-0.2975409   0.29687014]\n",
      " [ 0.09519751 -0.09582736]\n",
      " [-0.04389561  0.04419887]\n",
      " [ 0.23338473 -0.23300384]\n",
      " [-0.03401191  0.03391762]\n",
      " [-0.05143511  0.05033717]\n",
      " [-0.06697754  0.06786909]\n",
      " [-0.12102184  0.12043953]]\n",
      "layer2_biases [1.1405637 0.8594353]\n"
     ]
    }
   ],
   "source": [
    "for i,j in data.items():\n",
    "    print(i,j)"
   ]
  },
  {
   "cell_type": "code",
   "execution_count": null,
   "metadata": {},
   "outputs": [],
   "source": []
  }
 ],
 "metadata": {
  "kernelspec": {
   "display_name": "Python 3",
   "language": "python",
   "name": "python3"
  },
  "language_info": {
   "codemirror_mode": {
    "name": "ipython",
    "version": 3
   },
   "file_extension": ".py",
   "mimetype": "text/x-python",
   "name": "python",
   "nbconvert_exporter": "python",
   "pygments_lexer": "ipython3",
   "version": "3.7.1"
  }
 },
 "nbformat": 4,
 "nbformat_minor": 2
}
